solver_type L2R_L2LOSS_SVC
nr_class 2
label 1 -1
nr_feature 54
bias -1
w
-0.6148119586525547 
-0.01170227420939877 
0.05163091016334846 
0.1235740827245951 
0.01417920256084363 
0.05923357765265574 
0.0574442633459958 
0.1545415037051811 
0.01836441667547395 
0.008988552335358661 
0.09198832452423683 
0.07880192349438638 
0.05706937542241904 
-0.3804312560448215 
-0.09085117071173456 
-0.1765412048962864 
-0.08898239811014137 
-0.174046318135575 
-0.06455082435772549 
-0.02234999791625953 
3.142078610716636 
0.003577637149151683 
-0.003551287776809228 
-0.06588430230216533 
0.00335486203811034 
0.08557132226555297 
0.04781195379928356 
-0.07000244144619627 
-0.00220733724283916 
-0.008427034972646073 
-0.06503408874894936 
-0.01034930895791208 
-0.01021811904601982 
-0.01282106313071736 
-0.0281221808116472 
-0.05738184216105855 
-0.032707549545847 
0.02564701715606298 
0.01982709808821011 
0.02600837086430278 
0.0007047312810821269 
0.02066594932648964 
0.08540437922749594 
0.03953556167666571 
0.04098036300720866 
0.09796406045522732 
0.0617667086831632 
0.03504277182089912 
-0.02002573589213557 
0.0007437043533417327 
-0.00447528551376313 
-0.05305107887777519 
-0.06088028520911811 
-0.03302039048384745 
