solver_type L2R_L2LOSS_SVC
nr_class 2
label 1 -1
nr_feature 54
bias -1
w
-0.6148119586525558 
-0.01170227420939867 
0.05163091016334889 
0.1235740827245952 
0.01417920256084406 
0.05923357765265552 
0.05744426334599881 
0.1545415037051794 
0.01836441667547743 
0.00898855233535901 
0.09198832452423519 
0.078801923494386 
0.05706937542241896 
-0.3804312560448225 
-0.09085117071173764 
-0.1765412048962909 
-0.08898239811014494 
-0.1740463181355806 
-0.06455082435772747 
-0.02234999791626354 
3.142078610716616 
0.003577637149151078 
-0.003551287776810853 
-0.0658843023021741 
0.003354862038104759 
0.0855713222655452 
0.04781195379927732 
-0.07000244144619766 
-0.002207337242839252 
-0.008427034972648639 
-0.06503408874895238 
-0.01034930895791433 
-0.01021811904602263 
-0.01282106313072187 
-0.02812218081164857 
-0.05738184216106643 
-0.03270754954585745 
0.02564701715605619 
0.01982709808820908 
0.02600837086430028 
0.0007047312810806169 
0.02066594932648816 
0.08540437922748263 
0.03953556167665816 
0.04098036300720127 
0.0979640604552169 
0.06176670868315341 
0.03504277182089727 
-0.02002573589213755 
0.0007437043533412612 
-0.004475285513763937 
-0.05305107887778041 
-0.06088028520912331 
-0.03302039048385132 
