solver_type L2R_LR
nr_class 2
label 1 -1
nr_feature 2000
bias -1
w
-0.0001272869757359216 
-3.064575835292941e-05 
-2.72212285365699e-05 
-6.80593925545472e-05 
0.0002295100386062329 
-3.27429253883083e-05 
-0.0001944326225483551 
7.006829695853993e-05 
9.235881091630034e-05 
-0.0001512447133559761 
8.61754143679952e-06 
-4.30410617633866e-05 
6.912554490867652e-05 
-3.666288222491321e-05 
9.590561204321343e-05 
-6.623228068651811e-05 
3.886750400729486e-05 
8.013710014832184e-05 
-9.215853603001433e-05 
0.0002979737261456117 
7.298389189124986e-05 
0.0003218877383544726 
0.0001464615326594518 
-5.025432914098671e-05 
-5.881523905458332e-05 
-9.648077869974646e-05 
0.00022851908014945 
-2.692704712680728e-05 
-0.0001138788153801071 
-0.0001747060350622732 
-7.193387541625226e-05 
0.0001506946536386308 
-7.525685274053021e-05 
-1.060828870306248e-05 
-0.0002565685912960362 
0.0001354514569026448 
0.0001229790224715083 
-0.0002098093105813667 
-0.000221135342463828 
1.562891605328727e-05 
0.000384289737508157 
-0.000232045448817095 
-1.758869252562437e-05 
2.482124837879162e-05 
0.0001659491059648148 
-0.0002755722762286711 
5.416509259118925e-05 
0.0002036400387314126 
-0.0001467313287792456 
9.508140369712435e-05 
2.54120747187337e-05 
0.0001329664691517907 
4.855953450108644e-05 
-0.0001495115877815585 
8.229419638906111e-05 
-6.954069545703697e-05 
-0.0002739846045462234 
4.093276840654385e-05 
6.55029256732369e-05 
0.0001180289977666144 
7.18042223706756e-05 
-0.0001865496426238994 
4.264911116803568e-05 
6.264632348209737e-06 
0.000121356750271326 
7.519652162668025e-05 
-7.255966827383774e-05 
4.452778150142063e-05 
-3.784464717428422e-05 
-1.615733689006659e-05 
-0.000198750604492237 
-0.000161672661683848 
-0.0001301986457123337 
-4.349295051450742e-05 
3.523417719545855e-05 
-0.0003149074641220461 
-8.726332871428045e-05 
-7.950427974560815e-05 
-0.0001404730943810569 
0.0002667247048893408 
5.608765028607648e-05 
0.0002169826282698483 
0.0001649951453552757 
-8.374242940139003e-05 
0.0002271468054070007 
0.000168156994222227 
-3.867816792080074e-05 
-0.0001871489885797229 
-0.0001951605400727923 
1.829118563384038e-06 
0.0002063260551261731 
-0.0002886943512997589 
7.309644246442986e-05 
5.068989573555716e-05 
0.0001756690999058395 
-7.986572026833874e-05 
0.0001298302847211591 
-0.0001571498155684854 
-0.0001491501674863977 
7.819060838925417e-05 
-7.597221789306326e-05 
1.243031020644465e-05 
0.0002263881795777833 
4.72976074381679e-05 
0.0002637304806782162 
-0.0002687279907649693 
-0.0001203098530288318 
0.0001908168642737524 
0.0001298456983025477 
0.0001951836939530608 
-0.0001995819722045306 
0.0003155250527241575 
5.558010185152578e-05 
-0.0001195656875268815 
-0.0001141296976933506 
-0.0001032894512124063 
2.964792514080009e-05 
3.044524171399716e-05 
0.0001195778970131315 
-0.0001473017958258133 
1.421851224131968e-05 
8.223814832609577e-05 
0.0001913429191757392 
4.929417179718846e-05 
0.0001146748937514456 
-1.70646943947274e-05 
-1.65136184284423e-05 
-3.299075506373998e-05 
5.380057968149826e-05 
-1.649966169337814e-05 
-3.288103940161555e-05 
-0.0002710107463416529 
7.109069207364703e-05 
-6.09078680526629e-05 
-5.427617471893915e-06 
8.937417763692102e-05 
-0.0001361654268185428 
-0.0001647006219220097 
-0.0002042700955816581 
0.0001343182042756348 
-0.0001257820425579693 
6.447312091800342e-05 
-7.715730171635633e-05 
-0.0001332983217663066 
-6.391938926314301e-05 
3.568309168879611e-05 
-0.0001574471068743228 
2.586411672104827e-05 
6.875309809903027e-05 
1.900549369416409e-05 
9.853558600586183e-05 
0.0001668706597811765 
-0.0002669029454903143 
-7.839119253289849e-05 
-0.0001069546270970249 
6.893686079266693e-05 
0.0001239202679343928 
0.0002399663094600816 
-7.949591269363307e-05 
-0.0001549036458869321 
-6.682755403251438e-05 
-6.688682182752632e-05 
-7.168243575882764e-05 
0.0001134334246816485 
0.0002047703040302895 
1.885582201824826e-05 
-0.0001549791733301192 
-0.0001121069079681252 
-0.0001016772247387781 
0.0002112142597993133 
0.0005038199009657061 
-0.0001067956577673633 
0.0001210126977935122 
8.46712446669252e-05 
0.000113441022438793 
3.774973771397111e-05 
-3.968622652451253e-05 
-0.0001950193892654514 
0.0001047978260255667 
2.986945237535455e-05 
-4.451807422718142e-05 
0.0001102315728511631 
1.332314271714655e-05 
-2.758380613396882e-06 
-9.039962759287791e-05 
-3.689104176671997e-06 
8.460167136374583e-05 
0.0003209777328088951 
-4.048980786378731e-05 
-7.933941026807577e-07 
0.0001510860506543556 
0.0002690498200092184 
9.225580820956797e-05 
-1.98377246758833e-05 
0.0001736036717655854 
0.0001580107038979594 
-1.051337229171985e-06 
0.0001556648092483358 
-8.468167949177594e-05 
4.708668186242289e-05 
0.0001904127723123908 
0.0002486206278235619 
6.926353699054939e-05 
0.000220506643187275 
0.0001144817713731065 
-3.890552509685342e-05 
-0.0001191527662691238 
-0.0001495325409150573 
-3.203094273432064e-06 
7.179376595107874e-05 
-0.0001371546852065734 
0.0001490627229681189 
2.056470659895142e-07 
-3.336988563415016e-05 
-9.494422960062472e-05 
-0.0002130855299471458 
0.0001447676459099444 
-0.0001713054214076074 
8.53250472694421e-05 
-0.000165257107058001 
-3.045773649331547e-05 
-7.309107122847607e-05 
-0.0001422067695646402 
-2.291462618959079e-05 
0.0001663065644695488 
3.638138920915327e-05 
-7.410928048379623e-05 
-5.941157127034794e-05 
-0.0001258647549039529 
-7.355293246988625e-05 
-4.895931898167432e-07 
0.0001283241725745386 
6.199903386136911e-05 
-6.047025599626774e-05 
1.13176392751975e-05 
-8.8313424850264e-06 
-9.331195981367829e-06 
0.0001367717758222146 
-0.0002557884569002017 
-0.0002408208509162429 
-2.841773990586678e-05 
-2.717270148271504e-06 
-1.477707055647582e-06 
-4.327079836756398e-05 
0.0002818623718667587 
2.695248109264475e-05 
2.392644762124536e-05 
5.970030242516971e-05 
-0.0001133881918941966 
9.620429323646869e-05 
0.000141950930036993 
-0.0001085419012328764 
-3.460198719562818e-05 
0.0001094790802854359 
3.45552007178078e-05 
5.682332086235015e-05 
-0.0001298874785371861 
-7.447874333550421e-05 
-0.0001031546360531351 
-0.000176871681098626 
0.0001117662093296252 
-4.976931105466796e-05 
-6.821990944973955e-05 
2.593807111082568e-05 
5.594191389462488e-05 
3.95886135679041e-05 
0.0001190923005007483 
-5.210440259198165e-05 
-0.0001046807776420917 
0.0001633425790887658 
0.0001474449185050646 
-6.180830682567685e-05 
-6.987802465284956e-06 
6.57962685281998e-06 
-0.0001340258224228134 
-7.10760501614749e-05 
2.624262471433023e-06 
-0.0001289220864218777 
9.684851196088312e-05 
0.0001933105891562901 
0.000115266376979676 
0.0001175616688503223 
-0.0002531045268165966 
-0.0001700902792333141 
-0.000101562242425174 
0.0001859612953849794 
7.335097486601888e-05 
-6.878025260405606e-05 
-1.314489942020769e-05 
-5.298626058602516e-05 
-0.0001368017395619791 
0.0003025978222442598 
8.249131983770845e-05 
0.0002750763046632644 
5.58514294279178e-07 
-4.766376980356797e-05 
3.868173594007646e-05 
-5.939079781025288e-05 
-0.0001827474684980343 
0.0001336452580007327 
0.0001284659255865771 
-0.000318230826658028 
0.0002309703749698642 
-4.844262199765087e-05 
0.0001252539233388645 
-0.0001584436317327028 
-2.106070806116121e-06 
-4.669053586388753e-05 
4.49370937715553e-06 
-1.810758189071258e-05 
1.255994416083961e-06 
-5.389110583202818e-05 
-0.0001319429105804772 
-0.0001948936779050651 
-9.520729821786746e-05 
0.0001092739302117802 
-0.0002803559631818316 
-0.0001254462427754268 
8.032410810470874e-05 
-0.0001945582914384092 
0.0002151552813676963 
6.736094427508449e-05 
-9.099457445795782e-05 
-5.199653913520417e-05 
-0.0001115668283391532 
-0.0002103439798752898 
6.758447011063313e-05 
-3.503194812146273e-05 
-0.0001679355814727622 
-5.973540154414314e-05 
8.668771831388548e-05 
-8.420517416829595e-05 
0.0001108030739601003 
-7.643219536409837e-05 
-0.0001278956353537286 
6.067476243564647e-05 
9.866918473974782e-05 
-0.0001000642301336272 
0.000204161092971949 
0.0003113433375673853 
-9.70985282468452e-06 
0.000294543206459569 
-1.537137528930504e-05 
-7.944070442982462e-05 
0.0002286089957959803 
-6.502952222647368e-05 
-0.0001030708326990123 
5.124459681567401e-06 
2.649842288423811e-05 
0.0001366814200839007 
4.865210332516745e-05 
-0.0001190934033428807 
0.0001011297494887357 
-0.000229245982825486 
-7.940202110042056e-06 
-0.0001554340386744315 
0.0002802226063596923 
0.000310751138366261 
2.884016120744372e-06 
1.499113695866061e-05 
-3.325919202253392e-05 
-2.056579439204223e-05 
4.327785065199079e-05 
-2.321232393393098e-05 
-1.822542609472567e-05 
0.0002409071614898711 
-0.000130432033345662 
0.0001614130734233143 
-9.898811878134263e-05 
0.0001170169531433106 
-1.723847595354546e-05 
-0.0002016207495514784 
-0.0001411586431964507 
-0.0001202881474882894 
0.0001070475420390865 
7.319078130363428e-05 
0.0001393057766359847 
-4.957427930571702e-05 
0.0001299198614181155 
-0.0001334629526850845 
-5.016294845552436e-05 
0.0001354819135129293 
-0.0001017898036832728 
3.932195074129254e-05 
-5.268544636211201e-06 
0.0002348346525394509 
5.215269005779023e-05 
-3.464147950617315e-05 
-1.556650957856207e-07 
-0.0004035841324599576 
-7.306918514693995e-05 
-6.969420603662696e-05 
0.0001044809387064412 
0.0001263039567256169 
0.0002919467113269745 
0.000234487308239137 
-6.387181023291016e-05 
0.0001805851634943001 
-0.0002726209822747364 
-1.958816167082515e-05 
0.0001688135729386221 
-6.227744726951874e-05 
-4.346188667025676e-06 
-9.446947894190414e-05 
4.631346072497387e-05 
-0.0001323253583555358 
-1.016444453353257e-05 
-1.802973589239084e-05 
4.133413688641272e-05 
-0.0001492420391342637 
-0.0001619047926763401 
-7.938787169372709e-05 
0.0001179617151241757 
0.0001924642643467611 
0.0001023535306348898 
-0.0002096448482247928 
-0.000116898004326734 
-0.0001034932805496624 
0.000267757839003782 
6.57384490550877e-05 
-7.432073203736964e-05 
-1.348849242111509e-05 
0.0001871016902550013 
-4.981955073403762e-05 
2.554144720117056e-05 
0.0001218651472245576 
-5.693208068914684e-05 
-0.000139040479165704 
0.0001962622933677066 
0.0001594062869649019 
-0.0001642766105316721 
-2.385208221685527e-05 
-0.0001907420353032497 
-0.0003713898094850643 
-3.114063336947079e-05 
-0.0003811957760824036 
9.279047826806142e-05 
-7.564689595911248e-05 
-0.0001688566959953288 
1.871887354380058e-05 
0.0001097656747664301 
-9.001678224788707e-05 
0.0001070133022712983 
-0.0001328861850880222 
-0.0001468930676278209 
-0.0002413838975761495 
2.117697525830152e-05 
0.0001945219981066749 
-9.679884799308812e-05 
-0.0002162481677732592 
0.0001777832976742364 
-1.472065465857441e-05 
-0.0001959210536031483 
3.148742193942759e-05 
7.764187482113355e-05 
-2.550457912445989e-06 
0.0001048390101168871 
1.371647345703819e-05 
-5.163169437453146e-05 
-3.752528368934031e-05 
-2.103999491003939e-06 
0.000164101576886902 
5.81080375671041e-05 
-6.585692766870298e-05 
4.799640129762613e-05 
-0.0001090629883056193 
-1.295372069255091e-05 
2.093581933745354e-05 
-7.393746272681237e-05 
-9.270813807105017e-05 
4.58235398585078e-05 
-4.449159041205189e-05 
0.0001895004354422478 
-1.937137915640481e-05 
1.161027689889881e-05 
-2.095741765722508e-05 
-3.670913716800392e-05 
-9.802517485150751e-05 
-1.073713422692264e-05 
-1.275304414186773e-05 
0.0001444567791437749 
-6.400662225743614e-05 
-1.150638762623328e-05 
-8.283824097507092e-05 
0.0001591785573601519 
5.355362967418877e-05 
9.986920527637267e-05 
0.0003617105298262141 
-0.0003437399447362421 
2.632389673076712e-05 
-0.0002710901400471537 
0.0001125653266318876 
-7.20961972977481e-06 
-4.430220832424301e-05 
1.535920180042454e-05 
0.0001462655663968291 
-0.0001131547431851326 
0.000137142020773858 
0.0001488795416185847 
-3.014886983308393e-05 
-0.0001848309200718696 
-7.660583776107914e-05 
-4.766477993624087e-06 
9.334071279686817e-05 
-0.0001753539306902015 
-5.772366438921776e-05 
-6.627817153638154e-06 
5.358818469704907e-05 
6.211516022411154e-05 
-0.0002337669328509292 
-0.0001154213183166594 
5.979939057899875e-05 
-4.722731946127463e-05 
-0.0001843122838910546 
-0.0001811583929467523 
-0.0001018796983067593 
9.678059064561382e-05 
-6.682324846770379e-05 
7.129058631036714e-05 
-0.0002009445851568672 
-2.113632243895741e-06 
-0.0001242579224276281 
-0.0003058609921198253 
0.0001181242839871298 
-5.44245673394434e-05 
-8.482699843657935e-05 
0.0001016952341219297 
9.384754430203072e-05 
0.000134486784564441 
0.0001170328120448325 
0.0001102926895967477 
0.0001381631924104406 
-0.0001502985352806159 
-0.0001901983851072744 
9.590712952869701e-05 
-0.0001052544809370975 
-0.0002569832089170098 
-1.486859672919642e-07 
-8.949485750675239e-05 
-0.0002567141393824431 
-1.724778991302509e-05 
-2.77507355533615e-05 
9.755076581650519e-05 
-0.0002910135207832969 
0.000213113488733787 
-0.0001423032648660471 
-0.0001025280576984914 
-6.543356875784378e-06 
2.626095097061009e-05 
-1.080442965038717e-05 
3.64836400862667e-05 
3.605253359217417e-06 
0.0001700677020111397 
-2.481772010564123e-05 
3.356241106534314e-06 
0.0001621460243373169 
0.0003207433286587733 
-8.244013804163549e-05 
0.0001018079346214751 
-8.724016539689614e-06 
-0.000163569880465154 
0.0001337190716735046 
0.0001554535029360376 
-7.472996697385892e-06 
-0.0001846437621170275 
-0.0002582342552472312 
-4.354219248581891e-05 
6.294729590100643e-05 
-0.0001690514054821007 
-0.000215458275453806 
4.994038434215635e-05 
-0.0001585512958733386 
-0.0003089925795634047 
-0.0002094100260734019 
9.455300971081812e-05 
0.0001324301187792176 
-8.680533143258024e-05 
-9.112498668595228e-05 
1.031210910964264e-06 
-4.313655118836122e-05 
0.000445025597537351 
-0.000113277110715789 
-9.326654853453463e-05 
-9.134379776336288e-05 
-0.0001554736973983296 
0.0001985352937015987 
4.919431116591488e-05 
-7.56970095856951e-05 
9.424208658410659e-05 
0.0001171050521420248 
1.248430649654658e-05 
8.882374728930528e-05 
-0.000107130697918743 
7.374803814225106e-05 
-6.164554553562558e-05 
-0.0002533804729292952 
0.0001200235097837278 
-0.0002439529855850823 
3.311475414171667e-05 
-9.737298650124592e-05 
3.234278028708691e-05 
-1.021115104803194e-05 
1.772211453515626e-05 
0.0002156596654901822 
-0.0001333711585861712 
-0.000167556502832295 
0.0001275307747656649 
9.375711113062485e-05 
4.637455301325661e-05 
-4.119665369649381e-06 
-6.52948926281537e-05 
0.0001570388611918998 
0.0001055418304119248 
-2.555279012083437e-05 
-6.583129609130706e-05 
-0.0001045604397277256 
4.256794507899587e-05 
-3.39177208260936e-05 
-0.0001463808348487904 
-5.122579524840225e-05 
-8.643788575464068e-05 
6.423478208587457e-05 
-6.902821066420733e-05 
-0.0002457882961693384 
0.0001254086258337275 
0.0001964281470582101 
-0.0002070136235013738 
-5.161562558661892e-05 
6.673106600847712e-06 
0.000296718979860374 
-0.0002769111456905371 
-0.0001861612237106597 
0.0001657779352956224 
0.0001033415668102475 
-9.136128040762696e-05 
-4.351148250570592e-05 
3.872454654764598e-06 
2.23990734524433e-05 
0.0001183463822416924 
-0.0003322408701149176 
-0.000221886299927156 
-0.0001087589438298091 
-3.406062254700963e-05 
-0.0001486275046696873 
-7.435657041314127e-05 
-4.029184970583352e-05 
4.649147887708703e-05 
-8.282415312534281e-05 
-0.0002999881783885099 
-1.50580443120724e-05 
0.0001648936118154647 
-9.042001741593783e-06 
1.033331501992455e-05 
-1.169401635149985e-05 
-9.414145982507101e-05 
-0.000144295994249322 
8.374165980024289e-05 
-2.525687508535439e-05 
0.0001770308057772951 
-0.0003553064880819872 
9.401414586299284e-05 
0.0002240514746482758 
9.505438221887305e-05 
4.052606519693962e-05 
3.562121379088781e-06 
-0.0001645101967448515 
-2.181943268829279e-05 
-0.0001576338529826828 
0.0001692772841205747 
-0.0001380138455946672 
-0.0002389860470934629 
8.564632519050374e-05 
-0.0002174996176836876 
-0.0001372070481411193 
0.0001791454520505118 
-7.750714301661547e-05 
-0.0002591095904298537 
-0.0001138470378172508 
5.293338956491496e-05 
-0.0001581096136543625 
-0.0001773610185842915 
0.0001299485179772371 
0.0001556331435263829 
-0.0001358125891969832 
0.0001125497535758587 
0.0001484047120831018 
-4.349709828243966e-05 
2.341915877787173e-05 
-0.0001012882210234465 
1.972327062095202e-05 
-1.616385955259708e-05 
0.0001393071145642065 
-0.0002545024336087137 
0.0001465271686543218 
0.0002324816096663901 
5.527539249782474e-06 
4.016232712284584e-05 
0.0002504529562384339 
-7.579232166004914e-05 
-0.0001748831390975551 
0.0001851083817219947 
-0.0001248658692516718 
1.191464126606826e-05 
0.0001828570600057753 
-0.000327178967692006 
-2.625403124339053e-05 
0.0001557756928657361 
5.32130573906609e-05 
-2.57294506718422e-05 
-0.0002121703262365921 
2.201715538542549e-05 
0.0003481269003269004 
-0.000215613100529678 
6.254931208226346e-05 
0.0001742952063572251 
-2.391920272678026e-05 
6.525014027443908e-05 
-9.582831387559207e-05 
5.303585892878839e-05 
2.892396323011469e-05 
-0.0002272978970912314 
4.96456415909657e-05 
1.698569091648181e-05 
4.107020106180297e-05 
-2.583378663360787e-05 
-3.959809445789197e-05 
-0.0003126478422564893 
0.000129516953781802 
-3.66537499014443e-05 
0.0003355445368070465 
7.637324792280176e-05 
-0.0001102188048834741 
-1.968038096610388e-05 
6.882094941949456e-05 
2.262903509378147e-05 
-0.0002640312244484696 
-0.0001197476472794411 
0.0001632912143401207 
-0.0001414362623835586 
-5.831498443699278e-05 
-6.897139774185378e-05 
1.938093045805683e-05 
5.956242300193201e-05 
0.0002084447159446241 
-0.0002484557486269993 
0.0001956139735818156 
-0.0001289809436023602 
-8.700150642852275e-05 
8.938346036726294e-05 
-0.0001591251116969615 
0.0002216848416701645 
-7.338321303411963e-05 
0.0001559931870919964 
-0.0001096047634523354 
-2.893001633582639e-05 
8.996832511425169e-05 
0.0002381527553034137 
0.0001344893607958702 
1.860102140081766e-05 
-8.750759700264048e-05 
-7.230734763127383e-05 
-7.629482036264699e-05 
-2.093486983924081e-06 
-0.0001023100796820255 
0.0001998046342748815 
0.0001158916215684843 
-0.0001625821793912148 
0.0001057964329138737 
0.0001409700802007465 
0.0001691776624253609 
2.361372718343758e-05 
0.000137409004260487 
0.0001207334165593193 
0.000125957277975582 
9.682304666976295e-05 
-0.0001187725592911687 
0.0003113059010471003 
-2.945604133208455e-05 
-0.000120840820096765 
3.186100253628283e-05 
-0.0002563381826206035 
-0.0001650014390468181 
-0.0001849848376836282 
5.268580201014614e-05 
0.0001320959180978222 
0.0002327976748485283 
0.0002126581883132541 
0.0001241914815959369 
6.447664991652774e-05 
-5.825171646616447e-05 
-3.47865936828647e-05 
8.002268086366478e-05 
-0.0001814765373295162 
-9.345979007422928e-05 
-0.0001321891316903931 
-7.076952585187277e-05 
-0.0001726452391356336 
0.0002723712843281437 
2.302879443617086e-05 
0.0001864766730773613 
0.0001270069200390152 
6.842627763064307e-05 
7.092974406622298e-05 
-5.83056570883408e-05 
9.87592522215029e-05 
-0.0001674552978846746 
-7.118326659309822e-05 
-0.0001448827239546231 
0.0001308114706064522 
-1.54962922865348e-05 
6.470675372800498e-05 
-4.384858653840188e-05 
9.251501908733548e-05 
-3.026904054566564e-05 
4.753608915147261e-05 
7.075614081876504e-06 
-9.879105698675395e-05 
4.797520743701323e-05 
-5.450890882978421e-05 
5.209727888451426e-05 
-2.776557645641058e-05 
-0.0001276878664352386 
0.000138496861685629 
-0.0001442112113438609 
-8.813360947883531e-05 
0.0001286242728491716 
-3.113735167301024e-05 
0.0001271581471080059 
0.0001932297848264157 
-9.443453788273118e-05 
-0.0001584422778566137 
-0.0002952777974164546 
-5.577197390038637e-05 
0.000150524678841663 
-3.317898109879993e-05 
-0.0001087204346457858 
-0.0001653592591100768 
0.0002566369953168433 
2.135319723725576e-05 
0.0001202202596413418 
3.429681692255012e-05 
0.0001880461176228644 
3.501650069944837e-05 
-8.908975005364458e-06 
5.20439554329668e-05 
-0.0001441101723980909 
-0.0002072790918703179 
6.933097603801921e-05 
0.0002090581259323699 
6.123350785904985e-05 
-2.57248124125705e-05 
-9.313375350039736e-05 
1.658880676524594e-05 
2.21462700770199e-05 
4.14842128408779e-05 
1.695798444630198e-05 
-0.0001749647492326905 
0.0001110414602255428 
0.0001068985201202424 
-0.0001120212690786886 
0.0001137723497617499 
-0.0001354805055166381 
8.269212654605403e-05 
0.0004536531599328954 
0.0001300920990973663 
-3.652004139048584e-05 
-0.0003349882762464523 
0.0001916595602630153 
-0.0001256495247889982 
7.962742064178581e-05 
8.03400752772672e-05 
-6.477179434295538e-05 
1.591614502699799e-05 
9.402173218379915e-05 
-4.66839487670941e-05 
0.0001089413567100432 
5.455236719631545e-06 
0.0002209881855698454 
9.79704114567189e-05 
0.000349786628505857 
4.823872921257222e-05 
-2.242627739490821e-05 
0.0002295321424787108 
5.402162030545119e-05 
2.281936980230145e-05 
-0.0001013138236072685 
-5.087924883639871e-05 
-0.0001607849486494551 
0.000205597574890288 
-4.101632790479282e-05 
-1.636463328646322e-05 
-4.378132788243957e-06 
-1.387011608082253e-05 
6.091585452071315e-05 
-0.0002181454974572463 
-7.660890173121629e-05 
8.134031586073725e-05 
0.0001353227602283592 
0.0001227324871694515 
0.0001401495335473735 
-0.0001706938847021822 
-6.380818164366822e-06 
0.0001012486118872506 
1.672952367883853e-05 
6.71509084797364e-06 
0.0001814041839465373 
-0.0002741407606917087 
-1.821241664776736e-05 
-4.746742470691666e-05 
-4.102402999178009e-05 
-7.352595373874134e-05 
5.750403093747101e-05 
0.0001462291283819682 
5.681923285665404e-05 
3.284793619985431e-05 
6.051098365299519e-05 
-0.0001664291203506415 
0.0001272955364315398 
-0.0001398887605729031 
0.0001855122793356087 
0.0001360969924798303 
0.0001375176894365166 
-4.930676050633913e-06 
0.0003465637897766872 
1.616051881020391e-05 
6.089020824514921e-05 
8.078532623567673e-07 
8.893713279136749e-05 
0.0001924296187553471 
-8.69268867616998e-05 
9.998185539881092e-05 
-9.575274917830112e-05 
0.0001664055261721568 
-0.0002817373286580029 
-5.860001140194467e-05 
0.0001465655914511897 
-9.862109640240117e-05 
9.335545425164968e-06 
-0.0001188550681218224 
-1.3161769659263e-05 
-0.0001275306370897153 
4.894994953194298e-05 
-2.18258667627239e-05 
-8.352333299389531e-05 
0.0001050710860210833 
-7.676492367960376e-05 
8.18237882894386e-05 
0.0001116698989610191 
-9.492580693185002e-05 
5.505412372290934e-05 
7.056240307592545e-05 
-0.0001402266276230278 
-0.0001193304557599214 
-0.0002144506074305923 
9.094913133734848e-05 
6.214603596085228e-06 
-0.0003869304580416051 
-0.0001089971744840226 
-3.185707564999536e-05 
-9.797213354216238e-05 
7.077853721560844e-05 
-0.0001771591515901416 
-8.899717184754324e-05 
0.0001319052505983544 
-5.072648406433921e-06 
-0.0002164157184086306 
-0.0003313452816743549 
1.2353401097542e-05 
0.0001645837713899341 
9.094182914466068e-05 
0.0001505752716735477 
2.412085738389287e-05 
-8.762270130296122e-05 
8.979323573741777e-05 
0.0001346533931352059 
0.0001066526492623527 
9.083996935138508e-05 
-2.155968913547808e-05 
3.245351721287254e-05 
-9.469862635180332e-05 
1.746156510534869e-05 
7.67763965190894e-05 
-8.502550801627452e-05 
-1.233613338684041e-05 
-7.530057616770231e-05 
5.07357626315877e-09 
0.0002215610270369234 
-4.861098469160821e-05 
1.10731052074541e-05 
8.61672027530579e-05 
-0.0001060272093715197 
0.0001704803993407468 
-0.0001756677443708614 
1.82211170838943e-05 
-0.000141507947513495 
-1.389897718887826e-05 
9.088420566576757e-05 
-9.891853813245182e-05 
8.481389310046114e-05 
-5.50918676884095e-05 
0.000155530314301051 
2.748493523760981e-05 
-0.0002420541932444102 
9.402863521128494e-05 
1.610129606137879e-05 
-9.131224394670395e-05 
-0.000183497108353139 
3.785265798213843e-05 
0.0001567530211213112 
0.0001601830638220312 
0.0001244360719531926 
2.34917258625069e-05 
-0.0002282210814085295 
-0.0002020021769610543 
0.0001192506935860086 
1.733679365281886e-05 
-0.0001344680883284552 
7.193748205379917e-05 
-0.000105944717598166 
-0.0001545042495517089 
-0.0001911679928291744 
-0.0002764867610901925 
-0.0002071953711979463 
0.0001633539712591621 
0.0001157637097969511 
1.526894868851768e-05 
-0.0002133156088161535 
9.521313941007792e-06 
-0.0001853119148340208 
5.45731990469981e-05 
-4.941801221360073e-05 
-5.440591512577284e-05 
0.0001080623957372416 
0.000118766814869562 
-0.0002092104522164093 
-8.728788071692949e-05 
-0.0001579194635143501 
0.0001058180677711834 
0.0001249536709156787 
0.0001665819677465528 
0.0002697126375712336 
6.727350034966074e-05 
-4.766626622665688e-05 
0.0001861192064760829 
-3.709805877270711e-05 
5.946160089700101e-05 
7.850919725183074e-05 
-1.852923367676593e-05 
-4.358160971422135e-05 
0.0002666490972089824 
-0.000109381396991764 
0.0001260624159377946 
-5.217834683093974e-05 
-5.227188833076735e-05 
-0.0001501431978449481 
-0.0001014557843154749 
6.635090370525336e-06 
-0.0001501702326212689 
0.0001464940991810958 
-0.0001328584219018658 
0.0003113849775839658 
3.205042169354822e-05 
-0.000150827201596838 
5.172107461930207e-08 
0.0001565688988185194 
-2.131176575766488e-05 
5.907110047880776e-05 
-0.0001069215008826444 
-0.0002499409856211664 
0.0001065796891232763 
0.0003299077219401129 
-2.441749391936613e-05 
-0.0001784025596124754 
-0.0001075859762898112 
9.393449574836453e-05 
0.0001715973342456969 
0.0001801593837556802 
0.0002474186510642982 
-0.0002016929757186381 
-0.0003269856473506054 
-0.0001841205163574527 
0.0004050068101813416 
-0.0001113725618431959 
6.81442596952275e-05 
6.665658877752457e-05 
0.0001590177174066635 
0.0001694180647626854 
9.334223387768782e-06 
1.905313813675948e-05 
0.0002526067623482704 
-0.0002180757128065954 
-0.0002100606603470487 
-0.0001156254644516202 
-0.0003918905963291209 
-0.0003565852751180552 
-2.241576620481233e-05 
-0.0001584446515986712 
0.0002702815039124192 
-1.179543380300813e-05 
0.0001227037356436022 
-0.0002438570539678668 
-8.145599618320751e-05 
0.0002314478160446268 
-0.0003076833890430539 
-5.761140926861421e-05 
3.01179150515595e-05 
-2.607685627358348e-05 
9.193837368626565e-05 
1.341574975587671e-05 
1.785543580940078e-05 
0.0001343110998969392 
-0.0002120812953181137 
1.49794159265894e-05 
1.070689238260952e-05 
-4.754941650783503e-05 
-2.539706020133084e-05 
0.0001539011159673995 
2.876686467325805e-05 
9.079604173165532e-05 
0.0001263529823293368 
-0.0003329347120292895 
-3.092330042686452e-05 
-0.0001005852159589283 
0.0001010380107038432 
5.186928010798522e-05 
-2.561276744009636e-05 
-0.000199948886791539 
-5.488146049759813e-05 
2.162591414570159e-05 
-0.0001470113701223526 
-0.0001606267438895743 
5.469496394269228e-05 
9.053558827161562e-05 
-9.839072276915164e-05 
6.89786130092152e-05 
0.0001811300663518392 
5.445188347421237e-06 
3.817613479649888e-05 
-0.000126260416838717 
5.43707226846666e-05 
1.287772063474672e-05 
0.0002487479675891269 
-0.0002039884899086822 
-5.193932218714506e-05 
5.136521814748292e-05 
-0.000231779693348562 
-0.0002925401399930492 
-2.409964564048054e-05 
-0.0002233434423535008 
-0.0002379509993630657 
-0.000151814588930481 
-7.136039181101562e-05 
0.0002827501265622919 
0.0001152900062999071 
-0.0001600570230568171 
2.362007851611429e-05 
-4.40487779317778e-05 
-0.0001361761844743937 
-1.819337334077897e-05 
-0.0001227603533795543 
0.0001021048349253161 
7.431944612357197e-05 
5.801959642953264e-05 
0.0001440374600379 
-0.0001543375949702455 
4.242666901483004e-05 
0.0001964562186367227 
-1.439910684082059e-05 
7.717138818884992e-05 
0.0001219367731447875 
-0.0001765227002886631 
0.000206405766668085 
6.930987847479296e-05 
2.167022795769292e-05 
0.0001507394760819275 
7.343738417327072e-05 
0.0001257775976645761 
0.0001078379257324214 
-2.921096303291585e-05 
0.0002504235864349622 
0.0002696117506165248 
-8.100869692780708e-05 
-8.317845122859671e-05 
-0.0001131409670508898 
0.0002199524709261596 
-0.0002290311540212636 
-0.0001270438319559232 
7.794122968509765e-05 
-0.0002430809473759398 
4.648891417466619e-05 
-4.592131311412263e-05 
-2.637311019164496e-05 
-0.0001900329463012217 
-2.080515168235954e-05 
4.317914463902157e-05 
-6.921655182596586e-05 
0.0002176929497775983 
-0.0001260329362307627 
-9.4196259891801e-05 
9.496467842631025e-05 
-3.71955099013281e-05 
0.0001125652665456029 
-9.079665356991465e-05 
2.467924794613981e-05 
0.0001561636836882265 
6.496013997105879e-05 
9.290841732094717e-05 
0.000402833979664572 
-4.295916038909227e-05 
0.0001322496472354072 
8.373657511781259e-06 
-6.726485875953599e-05 
-3.850926439192663e-05 
6.285805748835715e-05 
0.0001887903556976764 
0.0001126214542416413 
-1.502045114678763e-05 
-0.0001722270026890843 
-0.0001450383962710452 
0.0001882237063818801 
-7.443330360838946e-05 
-0.0002661578626230352 
-7.845902933574866e-05 
4.66958628817049e-05 
5.603035143990741e-05 
0.0002315454433043254 
4.288629720391275e-05 
6.724878736592949e-05 
-4.375489366922167e-05 
-7.530190513387416e-05 
-0.0001670088894688805 
-3.106256779707727e-05 
-3.359382329744568e-05 
8.62672996884169e-05 
-8.187325632692881e-05 
0.0002333378411247843 
9.439213489094829e-05 
-7.556042241493105e-05 
-8.452499273857772e-05 
0.0001396013205141734 
0.000136622692880279 
-2.929496212376579e-05 
4.252376752988569e-05 
-3.983929635909822e-05 
7.669200669499578e-05 
1.289001401750915e-06 
0.0001511456339843916 
-0.0001899295983641479 
-0.0001508556440915911 
-7.388941181500764e-05 
0.0001111188883641112 
-4.290602960447779e-05 
1.480165808965851e-05 
3.355291618121561e-05 
0.0001604532800349667 
-0.0001152138790998885 
0.0001437927749331606 
0.0002335576830025747 
-0.0001104857350399023 
6.579246705445991e-05 
0.000340403147130367 
1.945878034720389e-05 
5.542435292044458e-05 
5.952782037524685e-05 
1.014957257103835e-05 
-0.0001072796804317632 
-4.504301111447335e-05 
7.880570130369794e-05 
-0.0002150766970175464 
3.979687052145753e-05 
7.574406273223587e-05 
2.402872151430141e-05 
3.370479461557756e-05 
-0.0001703206217607112 
-9.697934121038156e-05 
-0.0002777446317243295 
9.468530626463523e-05 
7.252808040274503e-05 
6.16995395494177e-05 
1.319708817294218e-05 
5.001363239905439e-05 
-8.957724255635972e-05 
9.24262976260405e-05 
-1.614207567797544e-05 
-3.939491329839687e-05 
-7.648570175559189e-05 
-4.855210568155894e-05 
-8.176542340880829e-05 
-1.329053941729984e-05 
-3.843148503677671e-05 
-5.681838360394689e-05 
1.825368397573475e-05 
-6.534778815828588e-05 
2.70347689543543e-05 
0.0002044060009802958 
-5.898079306708541e-05 
7.165937461222491e-05 
7.15176914240411e-05 
-3.499049526169846e-05 
0.0002010894942058113 
-0.0001607143779103955 
0.0002307142818757251 
-0.0001163957173220556 
5.720403458487803e-05 
-1.018500980174035e-05 
8.059111423263262e-05 
-5.206580139766195e-05 
-0.0002856164565297798 
0.0001084383986264683 
0.0002295315418644624 
5.049529422560584e-05 
-0.0003493327832818906 
0.0001614334375318686 
0.0002047113058003002 
8.056809963159927e-05 
0.0002832707852044849 
-2.487309377374491e-05 
7.8880234751825e-05 
-1.061173897022297e-05 
-7.399951839278393e-05 
-5.059824721443875e-05 
-0.0001440824014102825 
-1.540220253319805e-05 
0.0001322431954180493 
3.700885391586427e-05 
-0.0001440913670263241 
0.0001565552377134755 
2.776131295858959e-05 
-9.7321196272255e-05 
0.0001233806886467549 
0.0001305445361457199 
8.94433829932701e-05 
0.0001083363455714278 
-7.34461677378697e-05 
0.000109369817244978 
-9.032148796377383e-05 
-5.746612313354039e-05 
-0.0001187142139261939 
0.0001187671728127428 
-6.474268474241659e-05 
9.259129847529362e-05 
-0.0001812313951992911 
-0.0001971837188263639 
0.0001310606027955328 
-7.977872006614811e-06 
-5.641479770440781e-06 
-5.120945025264701e-05 
5.045433985688001e-05 
-0.0001761480123961514 
-0.0001502018185473094 
0.0001269587199213298 
1.334217894014237e-05 
0.0002033518208190007 
-6.504270362218933e-06 
7.300882565586859e-05 
-0.000131384052663397 
-4.800557580494613e-05 
0.0001280890328226532 
-0.0002334232384675576 
6.394103687482554e-05 
-5.971293336564915e-05 
0.0002240617195026964 
-0.0001702360458105124 
5.372318913917294e-05 
0.0001660897191668995 
0.000174045676715218 
0.0001273691487848633 
0.0001424964915630597 
4.53753462513835e-05 
2.375241553192612e-05 
0.0001954789335943649 
0.0001360667682022382 
-0.000177352117620059 
0.0001032078914371241 
0.0002413147154137078 
-8.074307216343718e-06 
8.473110008183957e-05 
1.440248070060052e-05 
-5.617734208377018e-05 
-0.00011005840843036 
0.0001277115646320135 
-7.825047807091515e-05 
0.0002381475169953862 
-6.377631561944399e-05 
0.0001018274336059278 
-2.88972198264507e-05 
0.0001586765989860674 
-0.0001101637576410125 
-0.00014262055254966 
0.000130554589129311 
-9.700445137854998e-05 
-3.712152884786613e-05 
6.389152987498021e-05 
-5.921881886263514e-05 
-2.252752771237546e-05 
-0.0001310616719109447 
-0.0003055595635626417 
0.0002498048600013942 
0.0002995393266707466 
7.463688041527373e-05 
-5.064348892924245e-05 
0.000143811601152357 
-0.0001600989149034923 
-0.0001741043823407948 
-5.98554475018925e-07 
1.105547396780108e-05 
-0.000196843756645464 
-6.920166681857222e-05 
-5.492669613074933e-06 
9.508558811234816e-05 
-9.872435099713329e-05 
1.81525685301453e-05 
-0.0002110301318807634 
-0.000219822867480212 
-3.870268788241299e-05 
7.175261241464939e-05 
7.160919936520132e-05 
-0.0001700056880721403 
-0.0002039953152930395 
-0.0001538645808754981 
-6.391913640566862e-05 
2.418292504139169e-05 
0.0002657873223554996 
0.0002107204301069651 
-0.0001659608795430853 
2.795208712647566e-05 
-6.202988298130785e-05 
4.030088741682849e-05 
-0.0001470341769808555 
-3.796646932169053e-05 
-5.754742543621701e-05 
5.563821960649042e-06 
-0.0001486417550861452 
-5.349348994495582e-05 
-3.599933756605804e-05 
-0.0001173066677652781 
-9.45594214322919e-05 
-0.0001335381182120599 
-0.0001211866051343452 
0.0001650789491175568 
5.738909457322186e-05 
-7.311871803738812e-05 
-9.598898999536416e-05 
4.795968918117e-05 
0.0001382260989939035 
-0.0001785049557825087 
-9.757847275112745e-05 
-6.148159233353373e-05 
0.0001192054017844173 
-5.206781425180926e-05 
0.0001906650635974564 
8.681991012940112e-05 
-9.645452058640848e-05 
0.0002757324496228321 
-7.096985684195331e-05 
0.0001393225271620196 
0.0001255291804418502 
-3.683781373439841e-05 
-0.0001254493567046314 
-8.1050589267348e-06 
0.0002796206048565961 
-0.0001278704899698105 
-0.0001218680549715979 
0.0002698203936386475 
-4.558596815750397e-05 
0.0001407791626691839 
-0.0001267227271620982 
0.0001091972759959666 
0.000146288145900411 
0.0001577992385610735 
5.031979039523555e-05 
-2.276011578541782e-06 
2.228128148352878e-05 
0.0001121331730313488 
0.0001458060455525889 
-1.929044143015346e-05 
0.0002437585015297132 
0.0001483399235832199 
1.659071681392636e-05 
-0.0001280279257438973 
0.000117116920851295 
-3.749043078896963e-05 
0.0002636613609327436 
8.683235543917306e-05 
0.0002168545317700489 
0.0002743319109569546 
2.390599742030994e-06 
-7.353712337430449e-05 
-6.461850292698266e-05 
-0.0001542662497905896 
1.29934211629643e-05 
4.112250126135858e-05 
2.005171384896017e-05 
-1.762540118084462e-05 
-9.50830367443036e-05 
0.0001400131595663591 
4.563377620451616e-05 
-5.77869086499024e-05 
-1.383307064331152e-05 
0.0001411953978834231 
-4.931791373542262e-05 
-0.0001077282043538909 
0.0001547682346178521 
1.411929714688288e-05 
0.0001195648340150985 
-7.313126356511022e-05 
0.0001020914622559923 
-2.44638139326117e-05 
-0.0003913963001219338 
0.0001743367000415142 
7.884157817387248e-05 
-8.692375171277965e-05 
9.13044512709738e-05 
0.0003036816978668877 
-0.0002628079895882043 
0.0002037104640072269 
-5.050457727034451e-06 
8.689939750398132e-05 
-0.0001528671885319876 
1.662525195533746e-05 
-0.0001608891159862294 
-0.0001511892062235517 
4.940683357760468e-05 
7.770705766449908e-05 
-0.0003003747421333027 
0.0001468704339353269 
-0.0002856677342486998 
-0.0001216945476128234 
-5.337520182973464e-05 
-0.00019697159188743 
0.0001371142139201106 
8.24545986313113e-05 
6.085047801440403e-05 
0.000180064807332505 
-8.830063826102376e-05 
0.0001574043924275001 
-4.38830056080485e-05 
9.977872847616317e-08 
-7.405454724985769e-05 
-0.0002089700795782858 
-0.0001212937758496538 
-2.422783291006979e-05 
-4.53844257843573e-05 
-0.0002406811472414047 
-0.0001776419050980559 
0.0001011289385945929 
5.533797474663053e-05 
7.443215010844492e-05 
-2.431771054168185e-05 
0.0003327972646363493 
1.875596237864671e-05 
-6.885841612292291e-05 
5.512240551064122e-05 
-4.772252844883726e-05 
-1.51921418304389e-05 
-9.07952144371997e-05 
-0.0002460770224220938 
-0.0002505588034063859 
7.424230243501755e-05 
-0.0001374459440701249 
-2.446378983616866e-05 
0.0001043014683802919 
2.424653820638228e-05 
-4.510733815519779e-05 
0.0001004191616055275 
-3.331772179655885e-05 
-8.137841688277803e-05 
0.0001033256696289258 
3.695207566782325e-05 
4.028995205627378e-05 
0.0001012531208846824 
4.328556362082609e-05 
6.76072115587286e-05 
2.226384245338304e-05 
0.0001349141307912722 
0.0001362720956735808 
0.0001302106262422166 
-0.000290875035809217 
9.366025528422449e-06 
0.0002331316661750877 
-0.0001106651261532911 
0.0001313637366589215 
7.791801176919727e-05 
-0.0001614050917830167 
0.0001764743646045574 
0.0002518162422398159 
5.78816550002423e-05 
0.0001052079816360799 
7.732876934928129e-05 
-0.000159915358279788 
-0.0002352353759765838 
-0.0001064131251365033 
-9.996561593923828e-07 
-0.0001276254658622603 
2.073410378713732e-05 
-3.540413525898057e-05 
8.048618051664658e-06 
9.910725787795797e-05 
6.333817804672004e-05 
-2.571513107747496e-05 
0.0001033159354933524 
6.221939059613953e-05 
-5.569625677019703e-05 
-2.737004274897221e-05 
-1.242642767000983e-05 
-1.323531695887117e-05 
-4.506439716956731e-05 
-7.444261853854435e-05 
0.0001623523006309603 
-0.0001921219511931304 
6.58921743009144e-05 
-0.0001400390757918718 
-0.0001631814170678399 
4.947271334682637e-05 
0.0001394218700428972 
-2.667382317173342e-05 
-0.0001860190151198201 
1.711076535451049e-05 
-3.861990881645594e-05 
0.0002836615685125692 
7.249568702922403e-05 
0.0001543330429566365 
-8.443566609508095e-05 
-3.390736184714083e-05 
7.520382203433487e-05 
-9.850585730450947e-05 
-0.0003103018634955276 
0.0001254849820125917 
-4.173218424882357e-05 
-1.085642925443871e-05 
-0.0002056787314542024 
-0.0001188650809959775 
1.671830784156648e-05 
-0.0001363117986947154 
0.0001227998983440696 
-0.0001363902226566417 
-0.0001609428700986992 
-0.0002360741068477397 
-5.286764875336888e-05 
-2.444159506721947e-05 
0.0002955144132742168 
-1.463976676218493e-05 
-0.0001204293462312225 
0.0001189206934973536 
0.0001538871111541985 
3.600295166656326e-05 
0.0001390277944565729 
-4.703779900995513e-05 
-0.000120108484772946 
0.0001277515493342428 
0.000132283985707618 
3.731569330566824e-06 
-3.732573581086849e-05 
-2.605788384731461e-05 
8.556168656882712e-05 
-2.425635536070559e-05 
-0.000174162407303464 
7.109081087034304e-05 
1.065460315512372e-05 
4.419593950062625e-05 
-5.394080432969731e-06 
0.0002494045835799795 
5.390502271228223e-05 
9.219557672837279e-05 
-0.0001314192561479703 
-0.00021325535168782 
-0.0001208542464781623 
-3.344623762490521e-05 
2.537370232399811e-05 
-0.0001614332826631772 
-2.828097657244518e-05 
-2.226532153290674e-05 
-2.455728004429426e-05 
8.80203652300848e-05 
-0.0001019947280401568 
-4.466689449441585e-05 
-0.0001593485344219003 
-1.211721183997971e-05 
0.000198180782080629 
-0.0001047515622824003 
2.667125362736947e-05 
4.167583684299502e-05 
6.616424885410865e-05 
8.719340626838219e-05 
0.00027609581196984 
8.206575564799008e-05 
0.0003178853183263509 
-9.446596408917184e-05 
6.577179970832655e-07 
7.823987817055614e-05 
6.428230962178907e-05 
9.496021162111168e-05 
6.476934218067049e-05 
0.0001929774935810313 
0.0001583638016817478 
-0.0002496248740055317 
7.980712239511171e-05 
-0.0001111717100151801 
-8.75182743143249e-05 
7.410129462727066e-05 
2.776993961882397e-05 
9.9758563969341e-05 
4.647555176890287e-05 
0.0001601245034681302 
-0.0001095833644917872 
-0.000107629346177817 
0.0001109009646056716 
-0.0002731437368262138 
-3.110186514763429e-05 
0.0001065295977346906 
-2.264226588074578e-05 
-8.146960845297504e-06 
-0.0002774311452769623 
3.114989662907253e-05 
-7.766392085232486e-05 
-0.0001238258605826509 
-2.993893110286901e-05 
0.0001789422780881673 
-3.015453881403096e-05 
-0.0001326971442388605 
-5.088055709583366e-06 
5.070211871511901e-05 
-0.0001184098202898372 
-0.0002129918023663632 
4.775813836111298e-05 
0.0003224729101583622 
0.0001636945716272904 
0.000337652657592283 
0.0001531769723238537 
-0.0001861771910162931 
0.0001284440164099111 
4.943791801855295e-05 
0.0001435546545393078 
-0.0002673937550044302 
-3.220280937910898e-05 
4.286334611771144e-05 
0.0002253627647513351 
-7.204119398904115e-06 
-0.0002495663157948677 
4.371650681237103e-05 
0.0002421380045079445 
3.17385568827751e-05 
3.693590566602952e-05 
-9.687692086546283e-06 
-0.0002240767543803006 
4.758692972085082e-05 
-0.0001521595068016344 
0.0001911698174159016 
-0.0001607269910439627 
-5.158244039418907e-05 
0.0002839264969852965 
2.725272522083601e-05 
-0.0002415152694365504 
0.0001715886110453148 
-0.0001659945190753722 
-0.0003026960737696154 
0.0001067850251507121 
-0.0001430587699024957 
0.0001073324712145638 
-3.300092013956119e-05 
0.0001235240368718974 
-6.909859426299425e-05 
2.822176190383891e-05 
0.0001360189249774758 
5.910043466893352e-05 
0.0003491638311981894 
0.0001105259163641974 
0.0001090948772709375 
2.177989081862955e-05 
0.0001225286489106113 
1.519882845626243e-05 
-0.0001159711992092225 
-0.0002259459429879102 
0.0001687012752932093 
0.0002610131488603345 
0.0001821879915200063 
-0.0001113190959819835 
8.173216411036248e-05 
1.963129651927249e-05 
-9.851398154442604e-06 
-4.64887290806133e-05 
0.0003266142721435747 
-0.0001722102333807698 
2.371603189453492e-05 
-0.0001867994503030154 
5.832202587435452e-05 
-0.0001158493050471219 
0.0002158082500975367 
-3.035923679007919e-05 
-8.237878616275781e-05 
-0.0001721946870292158 
-0.0001244956949514621 
0.0001863248355650443 
-6.821770568053853e-05 
0.0001247220398127232 
0.0002043955859755465 
-5.910078552914024e-05 
-2.157174180589678e-05 
7.708323336275269e-05 
-0.0002671529133260175 
-2.902234777700028e-06 
-0.0001163333257391033 
2.960669291946454e-05 
-0.0001701885840267993 
-6.441217393497521e-05 
9.874632570846216e-05 
-6.197785424756314e-05 
-0.0001915073793160296 
-0.0001846847327078872 
0.0001858024757359154 
8.517956788256101e-05 
-6.233690615783241e-05 
0.000129215549375618 
-7.900043073629968e-05 
-0.0001536765838202554 
0.0001959889801482101 
0.0001064964285361605 
0.0001268551752419605 
0.0003597220555809879 
-0.0001194151461388149 
-7.645968422586533e-05 
0.0001028940558842054 
-0.0002223582708765861 
0.000242797145397233 
-7.051456433259451e-05 
-5.241189730574957e-05 
-2.244661058642015e-05 
-1.609581218194254e-05 
-7.068035735586194e-05 
-7.449661775353562e-05 
0.0001207194717258529 
0.0002170538805703967 
0.0001922912776886688 
-0.0001378244244458748 
0.0002132130052686017 
3.647467776450266e-05 
0.0001438253094451645 
-0.0002563738286141996 
0.0002360795488827569 
-0.0001358474956848429 
-0.0001402441154775258 
-2.113421270846746e-05 
-0.0001184044895151238 
3.654425897275951e-05 
0.0001048443946225362 
-5.504338552018169e-05 
4.392267729882671e-05 
-0.0001283638485719477 
-0.0001278583820122435 
-0.0001158114349906197 
-5.620566901907e-05 
-4.592089534118142e-05 
-7.9204317477823e-05 
-4.255240484762341e-05 
-6.495541808488936e-05 
-9.897351509600809e-06 
-5.291330744308112e-05 
0.0003822351860313168 
-0.0001031475004574672 
0.0001454492705663601 
8.703550573483012e-06 
-6.732815275064619e-05 
-4.477079984515645e-05 
0.0001300992078122245 
0.0001897056522253517 
0.0001098472852586509 
0.0002340776269068854 
-1.617156629374414e-06 
-2.745422252241576e-06 
-0.0003595312452136255 
4.967178994809785e-05 
7.311922223531552e-05 
-5.937511918025651e-05 
-0.0001368069754455669 
0.0002249733981784789 
-0.0001187497393058641 
1.681044684973033e-05 
0.0001683840327984497 
-0.0001164535896717689 
-9.058979505569096e-05 
0.0001559691551301972 
0.0001449256949719531 
6.193004114454416e-06 
0.0001374670173606626 
-0.0001368215630685489 
-0.0001804716220586648 
0.0001176489688619169 
3.36351568698317e-05 
-0.0001105679623902212 
0.0002326341694351384 
-0.0001092181475880832 
-0.0002613712247174027 
0.0001363630614010551 
-0.000160273448319875 
7.399776533425328e-05 
-0.0002432827589483679 
-6.626368317705075e-05 
-6.745244106224648e-05 
-5.122097756152035e-05 
-2.130029688994492e-05 
-0.0002659387836791553 
0.0002482590759477408 
1.386363976629856e-05 
0.0001598447764673109 
0.0001609708597787521 
-0.0001219046525310405 
-4.654898405558309e-05 
0.0003099040378543989 
-7.544786958451133e-05 
7.468003365431185e-05 
-8.425524215703352e-06 
-0.0001500997177301939 
-0.0001777894568005537 
-5.667385483207327e-05 
0.0002673656467816401 
0.0001851191904980243 
-2.594926499469507e-05 
-0.000123360050656479 
-0.0002080721863786401 
1.382161641552609e-05 
0.000422731978718076 
0.0004325354666115537 
0.0002081322612249709 
7.926652625444341e-05 
-0.0002213719968476021 
2.78640323959866e-05 
-0.0002223095361691848 
-0.000101206626679996 
5.647745925092076e-05 
0.0002915689945618057 
-2.137249572656777e-05 
-0.000139553807520106 
4.083858064002671e-05 
-2.535319305519841e-05 
0.0001370022740663284 
-0.0003162565797155795 
-2.816048304527867e-05 
-0.0002439366707273374 
3.750713838022113e-05 
-9.712919249149692e-05 
0.0003404717610807864 
-8.744261468993027e-05 
4.775286335953247e-05 
0.0002541688919371335 
-0.0002158221903974163 
-0.0002532860106153218 
-7.805573943570378e-06 
0.0001033546571717834 
-0.0001401359953421601 
0.0002014164653769318 
8.243020241218574e-05 
-1.635526433413842e-05 
5.644288293503963e-05 
-1.109838905220848e-05 
-7.504065150615798e-05 
-0.00015918248557281 
-5.790180716810467e-05 
-6.45464469571392e-05 
0.0002177593453709073 
0.0001496830272790517 
-5.113719190814422e-05 
-4.52341332743258e-05 
3.740865416004261e-05 
-2.376664481418724e-05 
-0.0002840775382605524 
-0.0001060867470071487 
-3.354725463065251e-05 
0.000158730099792195 
4.286524875364542e-05 
0.0001435256691143027 
7.816124125557399e-05 
0.0002092567858094092 
-4.410098587864222e-05 
0.0001280524291075403 
-8.40695051462557e-05 
4.33385189529829e-05 
-0.0002171761492376283 
7.618189111434795e-06 
-0.0002441639529348836 
5.225364212232715e-05 
-3.63547810825279e-05 
-3.125197229315142e-05 
-0.0001825429601795326 
-0.000353389454727242 
-3.857609106504865e-06 
-8.596479454658532e-05 
-0.0001490793457704528 
5.614242860858323e-05 
-0.0001203991215350909 
0.0002878660394882508 
0.0002879431442623425 
9.050875836136406e-05 
3.336394858040962e-05 
-4.685642751878692e-05 
6.03691780744631e-05 
-4.443306226086256e-05 
9.035804528617058e-05 
0.0002652153121009839 
0.0001461453409559937 
1.061489807050427e-05 
