solver_type L2R_LR
nr_class 2
label 1 -1
nr_feature 520
bias -1
w
0.03774013350853346 
0.01426561582397423 
0.005246740760893842 
0.005246740760893842 
-0.01147843568883329 
-0.163424605268061 
0.5076587521616615 
0.0643936969453139 
0.2745700185144394 
-0.02685114034915576 
-0.2203682839131451 
-0.2264437316613914 
0.967207572111989 
0.9443349487368943 
-0.4897553606335469 
-0.4822511056801011 
0.1118199342865179 
0.2211822973344009 
0.4416133743047931 
0.5096802092333194 
-0.02077061969516635 
-0.01918201313681812 
0.3612063070992376 
0.35506164565501 
0.6770212347574773 
0.6884233155419189 
0.09893986481260013 
0.4870869745977632 
0.9752004956220737 
0.9788337701568763 
0.4447985287180613 
0.4265357725535303 
1.035101497601195 
0.94859582581847 
0.5671727187075696 
0.6085181553597775 
-0.5851360756848872 
-0.1415629325515588 
0.6917754088963519 
0.7089557016170359 
0.7783405075575154 
0.4897781632320929 
1.006896739571301 
0.8467512330140959 
0.2094481455620726 
0.2377534367470448 
0.6573809881057315 
0.6376321700719343 
0.2893038900256366 
0.309787790666003 
0.8850324725535036 
0.8227968604789557 
0.5966132572780953 
0.6127623206532938 
-0.004510836659480256 
-0.007488366271122886 
0.5740257640377434 
0.6906968591016551 
-0.2076196177442546 
-0.211371249498715 
-0.1985835909133082 
-0.2158243869095941 
-0.1692334432079346 
-0.1714363209258022 
-0.2048017773463533 
-0.2106152567241829 
-0.1935229670350987 
-0.1927032431333941 
-0.2168929030892139 
-0.2264888865873171 
0.3874766219775183 
0.3956717984292497 
-0.214798074748326 
-0.2023379960085074 
0.8520437993053631 
0.88545145611506 
-0.2776364173196982 
-0.2856650962067659 
0.009195925454799352 
0.6312933744545917 
0.6595726349894933 
-0.1795880270378512 
-0.2069403616636736 
-0.1930026042113713 
-0.18791206538194 
-0.009587092873365729 
-0.3377905851018538 
-0.08013504949689496 
-0.07950516155092854 
-0.4855668245048371 
-0.3584755124946983 
0.005246740760893842 
0.005246740760893842 
0.005246740760893842 
0.005246740760893842 
-0.2515205602635522 
-0.2483429704948358 
-0.3109608359556551 
-0.3172111782447063 
0.1131841118490656 
-0.3089720418786359 
-0.3090141020011226 
-0.4393063402010346 
-0.5648516468067732 
-0.4952923715497321 
-0.3646155660761777 
-0.2860979728532534 
-0.2840790050080144 
-0.09139773500448342 
-0.08381396729388561 
-0.08387067871779463 
-0.08622056656297185 
-0.2819591601468022 
-0.2874670637233797 
-0.1617890975301097 
-0.1928388596167998 
-0.2518375477522358 
-0.2713400972478449 
-0.643922107795562 
-0.6417069462235795 
-0.2861086384876084 
-0.279815470267201 
-0.4694591291436848 
-0.4859725010710645 
-0.3973981300958505 
-0.4097111642639276 
-0.2239998104568241 
-0.2324067787411019 
-0.4737182140879001 
-0.4726333216011648 
-0.2141031295249321 
-0.215570277134591 
0.004444885960467599 
-0.2268921761502867 
-0.2266190744796284 
-0.0559185080376769 
-0.0607522401499221 
-0.1969034989007821 
-0.1983621903241773 
-0.5342407734024928 
-0.4764134072556827 
0.7274589159107032 
0.5410314623004998 
-0.227943502175566 
-0.2280681326869262 
-0.3053630607823338 
-0.3168651359691976 
-0.0803543742620349 
-0.07924074199488458 
0.1397929894263102 
0.04222402405715792 
0.005246740760893842 
0.005443657085418915 
0.296094149340901 
0.6251384765547672 
0.4902027741602141 
0.00491397422688985 
0.005246740760893842 
0.005246740760893842 
0.005246740760893842 
0.9111397684429978 
0.9927338785308538 
0.1061646181301556 
-0.1179062933352654 
-0.121706830309854 
-0.5502197720365648 
-0.4454444164770537 
-0.2394845185686033 
-0.2187091754277921 
-0.2895236382303262 
-0.1520627442903479 
-0.4536303192202559 
-0.4828311363129612 
-0.1179594214843353 
-0.1164350362168885 
-0.2096407374087056 
-0.2162157191472165 
-0.2088929836338769 
-0.211813641321032 
-0.1841862035351839 
-0.1760609739263019 
-0.1487187043363712 
-0.1903427742597676 
0.1840526319096221 
0.1104465343971966 
-0.1635599765722163 
-0.164411352075689 
-0.1484952006711009 
-0.1591852449846539 
0.00515879398216334 
-0.3304728602959927 
-0.2599743167624777 
0.004265117975717631 
0.004643036138280537 
0.005020321747271121 
0.004455180727690106 
0.002779468377092338 
0.0003583442233230094 
-0.002871719885691854 
0.005235853117581258 
0.03023772824606344 
0.008230342057258536 
-0.301104428580091 
-0.295472111888551 
0.005827180646108763 
0.00486153200993557 
0.09146910487641963 
0.00231380733337071 
0.002299023074341002 
0.03873323660777982 
0.03299727614632432 
0.03193791342104017 
0.004148004011438244 
0.001141238135798502 
0.005246740760893842 
0.00443872954973819 
0.005246740760893842 
-0.003917676365719927 
0.00305447220111718 
0.004713953814320916 
0.00901168457907978 
-0.2958007771793341 
-0.3262146115559064 
0.7376952949600951 
0.4613707368259101 
0.005246740760893842 
0.005246740760893842 
0.004654532902996431 
-0.03179336915626609 
-0.01430801540001284 
0.005217559118024207 
-0.0214094303398824 
-0.01582231738286982 
-0.02257705260084997 
-0.003438602441932866 
-0.006497803220338105 
-0.0303001048561875 
0.005246740760893842 
0.005246740760893842 
0.005246740760893842 
0.005246740760893842 
0.005246740760893842 
0.005246740760893842 
0.005246740760893842 
0.005246740760893842 
0.005246740760893842 
0.005246740760893842 
-0.1716609669396894 
-0.08850941314668798 
0.004724434609748449 
0.005687652009091639 
0.006005501731616019 
0.4780258288586889 
0.005246740760893842 
-0.1933458297400584 
-0.1267045591757121 
-0.1374471866689188 
-0.07866353028938078 
-0.05825067168754398 
-0.07587296474402469 
-0.07496801187929616 
-0.109126990645191 
-0.05019538313614005 
0.1673791547424092 
0.008047027961786536 
0.005705576892574473 
0.0130277079712509 
0.3525478091646179 
0.02875064381268545 
0.1421214717502946 
0.01441436548641603 
0.1753309838568891 
0.1587784996397786 
-0.0981352247151195 
0.02033779295395825 
0.009003987079479546 
-0.1903595503131885 
-0.1062876106239237 
-0.06279021573654445 
0.1651010618521325 
0.04754127674081404 
-0.08261562368101859 
0.005514606064372522 
-0.2163995187253338 
0.007253096545711768 
-0.08460012532692572 
0.008383035114620654 
-0.1243840746783111 
0.2810987602955256 
0.1415069382314122 
0.01050856924152919 
0.02214039366922557 
0.005246740760893842 
0.2375351502855315 
-0.09915267553267237 
0.005246740760893842 
0.008292496507115686 
0.005887287223757523 
0.1222733061665471 
0.1481583221659588 
0.005246740760893842 
0.01560221317014715 
0.005246740760893842 
0.005246740760893842 
0.06001944722259415 
0.03873565291278799 
0.005246740760893842 
0.3341116790329775 
0.01096520138789122 
-0.215506716276845 
-0.1199729464034708 
-0.1237619386489533 
-0.06310618360956906 
-0.06866390492873407 
-0.07761133299832855 
-0.06684554271290782 
-0.09511021968122715 
-0.05101626803924719 
0.1231066243989953 
0.009357111984621597 
0.005545380943944135 
0.01492755810094169 
0.2685060818440592 
0.02509544335953249 
0.03350400331579092 
0.01028603947915091 
0.06965438712182634 
0.02756831755476306 
-0.1001343031450531 
0.007792946177750004 
0.01718640546002843 
-0.1851510901982385 
0.005246740760893842 
-0.1311964581388144 
-0.07201860442234689 
0.3375097608316301 
0.06245945195912084 
-0.07839658138183361 
0.005480835148942641 
-0.1884167260354459 
0.00794669322942552 
-0.07715311688321361 
-0.01141328923624262 
-0.1019488624342644 
0.08030143067518154 
0.3688695328749613 
0.00530404757080712 
0.01818776224594112 
0.005246740760893842 
0.3507985047881115 
-0.1092822515677714 
0.00992366707865139 
0.005246740760893842 
0.00727223861462661 
0.02449689079962349 
0.08150201389087576 
0.005304788291734291 
0.005842141026400417 
0.03328584761669168 
0.005246740760893842 
0.007231097619879447 
0.01942365105266606 
0.006526255851911824 
0.146293671175783 
0.005246740760893842 
-0.1958454159158891 
-0.1044385907592312 
-0.128381271533646 
-0.07129655709922125 
-0.05607205913338528 
-0.08292444332253628 
-0.09233076300211775 
0.004533255821949384 
-0.08663524004314457 
-0.05556685732147587 
0.1715819338951719 
0.0161219774860617 
0.006412385210871063 
0.03145102783102344 
0.450917768101243 
0.03084430443890197 
0.02138340673534741 
0.01350681906915754 
0.1446856638116427 
0.098746056067503 
-0.09328770741224143 
0.005682066249098727 
0.07324502860992249 
-0.1919440487554321 
-0.08273130237412958 
-0.06766584427785172 
0.208065181071548 
0.04325379585264599 
-0.09198057485586295 
0.00574784618876052 
-0.1585358675492795 
0.0112358418710843 
-0.07726683924817812 
0.02443617605309833 
-0.1005306973926538 
0.07654812882266514 
0.1312255243298679 
0.01421129052174636 
0.217044449602013 
-0.09242167653081328 
0.008215755497412536 
-0.02379388003133337 
0.01438058338162927 
0.07781867291557235 
0.1466096298211416 
0.02554228580668928 
0.006438140481408387 
-0.0145564342267045 
0.005598731673179678 
0.1776502681682043 
0.005246740760893842 
0.004148074484674451 
-0.05877336612364092 
0.005246740760893842 
0.005100051244977712 
0.004602415570629948 
-0.04353758302961387 
0.005246740760893842 
0.00419012703568455 
0.004121042670106682 
0.007217715986205296 
0.005208533393958277 
-0.1904861809766636 
0.005246740760893842 
0.0003384375393663541 
-0.01154240698267368 
-0.00423279390096104 
0.005246740760893842 
0.1600247661316312 
-0.05127217611606747 
0.001865229759386852 
0.001432880358942774 
0.005246740760893842 
-0.06822622147905366 
0.004108678808858398 
0.005246740760893842 
0.005246740760893842 
0.1641405976955424 
0.005246740760893842 
0.005246740760893842 
0.004697299725778229 
0.06757067773174734 
0.003243944958616042 
-0.05263671687626624 
0.005168205814552518 
0.005246740760893842 
0.3952513209931869 
0.004655711383240968 
0.004785935149901235 
-0.01057269911339195 
-0.1366071307840133 
-0.03341381441231669 
0.005246740760893842 
0.08008806954473034 
-0.02017245402053512 
-0.001547608649958712 
0.005186567575593748 
0.004939366353592564 
0.002692367637143219 
-0.003233950636549362 
0.004561759112963993 
0.001902181943104349 
0.004807670458146911 
0.003884090148635441 
0.00451892448877712 
0.001124813302850311 
0.005083351989159391 
-0.008175445375953098 
0.002617684073254646 
0.006733472748059696 
-0.0002743023146720442 
0.005234385272402643 
-0.2565018525935255 
-0.2713327597785717 
-0.06831839740437634 
-0.1435600484105625 
0.005246740760893842 
-0.06334158744853238 
-0.06233083656025297 
0.005246740760893842 
-0.08642122129046798 
0.005246740760893842 
0.005246740760893842 
-0.1904237268797836 
0.004023507110622309 
0.005246740760893842 
0.001511599733017222 
0.002601262317730852 
0.02936783809870508 
-0.2753518856039371 
-0.2460619695885717 
0.005246740760893842 
0.001448077507392677 
0.002403512313984685 
0.04560876538748851 
-0.3514505073450782 
-0.2579500674177225 
-0.2658208331952314 
-0.008763780608306574 
0.005045108157271177 
0.002680572016191467 
-0.0005906081218226885 
0.009191935007618113 
0.004849606473449264 
0.004491225226001555 
-0.09537155834239555 
-0.003356438099935471 
0.001212853624516524 
0.002417852341193594 
0.03801448339855357 
-0.2567685337184237 
-0.2398405469424381 
-0.01355619693129742 
0.04948255382541789 
0.005246740760893842 
